0.08760278267 -2.283892297 2.447784862 1.706876198 2.623231463 2.559790329 -0.2520779686 2.583486666 5.581141163 -1.391380199 -0.8799663541 1.660171075 -1.201180977 -4.592625151 -6.163232257 0.1804465673 -0.6261799642 4.595551865 -5.756041761 2.299443603 -1.935718202 2.823786646 -3.291636166 -0.09498511965 -6.269168306
-0.5850260342 4.170419897 3.140063458 -4.43219228 -8.148090875 12.56735482 9.614235588 -15.45620019 -9.535532342 -2.116553304 0.720202726 -4.130342557 1.933823606 -3.709330291 10.87656614 -5.607358104 2.953909919 -15.74243494 10.78972162 2.942161161 7.912173507 -0.2959914975 -0.8886910677 -8.280399358 7.154507573
0.5942857673 2.84339456 -16.42467921 -0.001994016846 1.192794022 -9.484595779 -8.303283474 2.040261239 7.516040257 -5.552060827 3.619435056 -1.203726746 2.104301467 -0.6285184896 -7.460816321 -0.0655853368 -2.262633414 6.550693127 -15.15486115 -6.559468071 -1.494920092 -1.656668773 -13.16553697 -4.933725356 -1.589301266
0.1009780202 -4.270607959 33.7082822 -10.92224147 -6.513706238 2.096139169 15.1530835 -18.18843065 -1.667139935 1.042061063 -7.049810836 1.705887929 -4.583408348 -2.550521533 12.15956547 13.02649157 -3.699163062 -24.32313356 18.30044599 22.46502896 14.48973592 12.18684819 13.49348767 -13.2649563 -1.628213738
0.1480469461 13.60857528 -20.3516714 2.268138378 6.894539897 2.989388413 -7.580106923 19.19520201 -6.832991876 4.200155431 6.088286627 -3.284269263 15.60423405 5.532520608 -6.15557719 5.273295091 4.933166751 17.45398905 5.681778945 -20.198367 -1.726019475 -25.51609505 -5.59849591 15.67547567 10.28343448
-0.5915278632 -35.08679341 8.009651469 2.129152319 -1.548056993 -7.407066203 -0.7665595044 8.093369305 5.759262098 9.97067872 0.5833661411 1.966976942 -9.404861211 -6.221314365 2.137533304 -8.844898789 1.910123574 -15.15706648 11.6691193 -11.10701949 -0.2003884986 16.31947286 14.03427135 4.579790554 -12.44630731
0.9812009244 17.72582108 -11.14000692 -11.7373364 0.3886332491 -2.882872189 2.256892125 0.6963513939 -4.812114329 0.1443776248 4.061321105 -3.513478975 7.278770886 -0.2729937219 -1.218697203 11.69262054 4.642354124 12.82440701 6.11967988 3.967156235 4.131831811 -22.29568966 2.258749014 -10.46784064 2.830728382
-0.7617189278 -6.372666911 2.836575059 5.282470233 8.690941483 0.4848311271 2.14735057 2.827328403 4.137079154 4.06434937 0.2885499758 1.692264389 -2.967604422 2.137420011 4.342892184 -10.43763739 -4.662406818 -15.50600023 8.257113113 1.490903675 0.02211081404 16.12935461 -1.327413617 17.58000709 7.657278251
0.2258393361 7.218700064 1.156612456 -3.970918896 -3.773502406 2.772521368 -3.457881237 -9.671475945 -1.251141349 -4.054801143 -2.370171239 -6.056193754 0.4281098362 -1.466514054 0.02655255379 9.387350594 -8.496346774 12.2721373 -9.231278579 -1.678955831 -0.9803980476 -7.426458066 4.606108638 -11.86973828 3.459218563
-0.5844085331 -6.632563174 -2.658053446 12.75293009 9.13727811 -3.628485462 3.548425255 6.049086746 2.911287889 7.051554445 -0.02236173472 4.213021757 -0.3510952567 -2.233668217 4.917460854 -11.53499286 19.48662769 1.401197324 2.922840968 6.8028369 2.248637849 -2.74335434 -15.56306081 6.854497931 -4.82440564
0.7347929137 8.208719491 4.014792528 -13.21973113 -8.812890572 5.760923292 -8.085669345 -5.316959379 -3.030788208 -3.419964118 2.014517886 -1.159075795 2.154341871 2.809991523 -1.755632609 10.21173733 -29.92296717 3.421048865 -7.532562984 -4.659679835 -4.377473747 12.99832462 5.322489353 -7.941172806 4.257121599
-1.658754658 -0.00415321758 -10.6108848 5.687437858 11.70023243 -7.900125125 10.01298016 3.752754538 3.321055962 1.330592946 -2.706603802 4.345808828 -5.063091584 1.101830846 2.441543755 -13.04220935 22.86482431 -3.477589047 0.7970050912 6.531800116 0.2059887023 -21.0827228 8.810719409 -2.983231921 -5.758861182
0.8257732646 8.627644861 6.773810247 -3.965216118 -13.43108891 -3.212895708 -13.39420424 -5.628738582 -3.369533785 -4.012383457 -0.1764332921 -3.724199849 3.702633325 -0.6161956632 -2.283774656 15.0236892 -23.39516815 -5.71226367 -9.455314368 0.24043404 -9.237185729 11.18106771 -14.69587437 -7.714765693 15.42784157
0.1878983953 -2.77576606 -7.247444916 9.115915969 -13.81701751 0.4023574597 10.43811845 -3.016868372 -1.684950604 -5.832437388 -3.810093776 7.534658951 -8.646112072 14.24446759 11.64474456 -10.72507662 28.23535588 -1.778676438 -4.631010736 -10.60761769 3.40528219 5.978548774 11.35965611 9.571336115 -7.497850641
0.2397969069 -0.7952427035 2.74499368 9.085876771 16.68750291 -0.5948193032 -17.74751364 11.4398876 -8.940073785 1.716267026 1.689576824 -4.989107833 1.804591497 5.368768153 -19.88818279 -5.472188099 -18.07954457 24.34643304 -5.8935975 6.523750294 -14.79364144 -3.262108371 -0.8199918261 18.18146417 0.523527454
